#include "common.h"
#include "neural_net.h"
#include "embedia_debug.h"
#include "embedia_model.h"

// Initialization function prototypes
conv2d_layer_t init_conv2d_1_data(void);
dense_layer_t init_dense_2_data(void);
dense_layer_t init_dense_3_data(void);


// Global Variables
conv2d_layer_t conv2d_1_data;
dense_layer_t dense_2_data;
dense_layer_t dense_3_data;


void model_init(){
    conv2d_1_data = init_conv2d_1_data();
    dense_2_data = init_dense_2_data();
    dense_3_data = init_dense_3_data();

}

void model_predict(data3d_t input, data1d_t * output){
  
    prepare_buffers();
    
    //<<<<<<<<<<<<<<<<<<<<< INTERNAL LAYER >>>>>>>>>>>>>>>>>>>>>//
    // Layer name: Channels_Adapter
    data3d_t output0;
    channel_adapt_layer(input, &output0);
    // Debug function for layer Channels_Adapter
    print_data3d_t("Channels_Adapter", output0);
    
    //******************** LAYER 0 *******************//
    // Layer name: conv2d_1
    input = output0;
    conv2d_layer(conv2d_1_data, input, &output0);
    // Debug function for layer conv2d_1
    print_data3d_t("conv2d_1", output0);
    
    //******************** LAYER 1 *******************//
    // Layer name: conv2d_11
    relu_activation(output0.data, 288);
    // Debug function for layer conv2d_11
    print_data3d_t("conv2d_11", output0);
    
    //******************** LAYER 2 *******************//
    // Layer name: max_pooling2d_1
    input = output0;
    static const pooling2d_layer_t max_pooling2d_1_data = { 3, 3 };
    max_pooling2d_layer(max_pooling2d_1_data, input, &output0);
    // Debug function for layer max_pooling2d_1
    print_data3d_t("max_pooling2d_1", output0);
    
    //******************** LAYER 3 *******************//
    // Layer name: flatten_1
    input = output0;
    data1d_t output1;
    flatten3d_layer(input, &output1);
    // Debug function for layer flatten_1
    print_data1d_t("flatten_1", output1);
    
    //******************** LAYER 4 *******************//
    // Layer name: dense_2
    data1d_t input1;
    input1 = output1;
    dense_layer(&dense_2_data, &input1, &output1);
    
    // Debug function for layer dense_2
    print_data1d_t("dense_2", output1);
    
    //******************** LAYER 5 *******************//
    // Layer name: dense_21
    relu_activation(output1.data, 16);
    // Debug function for layer dense_21
    print_data1d_t("dense_21", output1);
    
    //******************** LAYER 6 *******************//
    // Layer name: dense_3
    input1 = output1;
    dense_layer(&dense_3_data, &input1, &output1);
    
    // Debug function for layer dense_3
    print_data1d_t("dense_3", output1);
    
    //******************** LAYER 7 *******************//
    // Layer name: dense_31
    softmax_activation(output1.data, 10);
    // Debug function for layer dense_31
    print_data1d_t("dense_31", output1);
    

    *output = output1;

}

int model_predict_class(data3d_t input, data1d_t * results){
  
   
    model_predict(input, results);
    
    return argmax(*results);
    //return argmax(data1d_t);

}

// Implementation of initialization functions



conv2d_layer_t init_conv2d_1_data(void){

        static filter_t filters[2];
        
        static const float weights0[]={
           0.9764544367790222,    0.33683449029922485,    0.36902904510498047, 
           -0.4343154728412628,    0.23754186928272247,    0.8650258183479309, 
           -0.1855737566947937,    0.09644358605146408,    0.8595556616783142, 
           1.0818060636520386,    0.8719789981842041,    0.7508479356765747, 
           -0.42212527990341187,    0.4661608636379242,    0.5624790787696838, 
           -0.405330091714859,    0.2939265966415405,    0.29623088240623474 
        };
        static filter_t filter0 = { weights0, -8.722691563889384e-05}; 
        filters[0]=filter0;
            
        static const float weights1[]={
           0.6195400357246399,    0.6995689868927002,    1.2105120420455933, 
           -0.688978374004364,    0.9732571840286255,    0.18983498215675354, 
           -1.4793752431869507,    -1.4054592847824097,    -0.6349016427993774, 
           0.9357104897499084,    0.32492509484291077,    0.6816601753234863, 
           -0.27772581577301025,    0.787754237651825,    -0.3405722975730896, 
           -1.481498122215271,    -1.6683908700942993,    -0.70023113489151 
        };
        static filter_t filter1 = { weights1, 0.0036598946899175644}; 
        filters[1]=filter1;
            
        conv2d_layer_t layer = {2, filters, 2, { 3, 3 }, 0, {1, 1} };
        return layer;
}
        
        
dense_layer_t init_dense_2_data(void){
    //  32 inputs
    //  16 outputs/neurons
    static float weights[16*32] = {
        -0.142729, -0.119882,  0.040062,  0.326603,  0.020304, -0.255018, -0.067771, -0.291326, -0.196068,  0.116877, -0.056399, -0.291622, -0.158094, -0.141582, -0.052721,  0.144618,  0.215026, -0.015220, -0.335765, -0.127040, -0.257972,  0.291387, -0.224584, -0.086285, -0.057714, -0.281163, -0.321764,  0.221913,  0.003674,  0.024128,  0.114774,  0.150099,
        -0.204442, -0.100503,  0.058616,  0.412188, -0.186504,  0.422872, -0.240012,  0.145843,  0.152271, -0.068642,  0.670635,  0.342405,  0.203785,  0.646720, -0.246586,  0.163638, -0.040983,  0.258133, -0.680467,  0.686378, -0.128173, -0.385545, -0.131822, -0.905247,  0.272271,  0.540446,  0.153096,  0.189870, -0.093809,  0.178796,  0.443194, -0.140996,
         0.110554, -0.053221,  0.221773, -0.340595, -0.092903,  0.068661,  0.013996,  0.018238, -0.271903,  0.136802, -0.366043, -0.166921, -0.135488,  0.273492, -0.025723, -0.310046, -0.348099, -0.305334, -0.077261, -0.309574, -0.048600, -0.011958, -0.198476, -0.018964, -0.023596, -0.198123, -0.045547, -0.122905,  0.169879,  0.153260, -0.232325, -0.119891,
        -0.125363,  0.032249, -0.115441,  0.290537, -0.143102, -0.076761, -0.060248,  0.251150, -0.299754, -0.083813,  0.038093, -0.266566,  0.028801,  0.018410, -0.201952, -0.147532, -0.204061, -0.208415, -0.198706,  0.090297, -0.349475, -0.352037,  0.200456,  0.273611, -0.264204,  0.071879, -0.210836,  0.170137,  0.161448, -0.178964, -0.271944,  0.282512,
        -0.052538, -0.129925, -0.068208,  0.027747,  0.442559, -0.027544, -0.013516, -0.494265,  0.436704,  0.368752,  0.356868,  0.470678,  0.577128, -0.207441,  0.298863,  0.126356, -0.092667,  0.047458,  0.239065,  0.618399,  0.386896,  0.133185, -0.065224, -0.649886,  0.492049, -0.149294, -0.361647, -0.271595,  0.348801, -0.590539, -0.165955, -0.176168,
         0.027996, -0.393757,  0.091884,  0.419499, -0.106923,  0.963167,  0.253956, -0.202782,  0.073763,  0.738612,  0.237094,  0.709553,  0.660883,  0.573753,  0.247047,  0.182470,  0.405385,  0.272062,  0.038927, -0.339418, -0.501522, -0.085690, -0.123082,  0.719302,  0.127544, -0.446191, -0.029268, -0.169293,  0.033670,  0.022112,  0.198501,  0.076627,
         0.180311, -0.495958,  0.059457, -0.166643, -0.220616,  0.065597, -0.672839,  1.089581, -0.000999, -0.158584,  0.291146,  0.075434, -0.395261,  0.377799, -0.286836,  0.837995,  0.043171, -0.046678,  0.136770,  0.196465,  0.197938,  0.252333, -0.353251, -0.179586,  0.088537,  0.093338,  0.138403,  0.068216,  0.220510,  0.121634,  0.048914,  0.500427,
        -0.382829,  0.009307,  0.070423, -0.069637, -0.305368,  0.629966, -0.460705,  0.538392,  0.190831,  0.085929, -0.372012, -0.305996,  0.488116,  0.460808,  0.504488, -0.950638,  0.744370, -0.804960,  0.093165, -0.275152,  0.145893, -0.481775,  0.082853, -0.100778,  0.072766, -0.036956,  0.051636,  0.396816, -0.061654,  0.280110,  0.338170,  0.463704,
         0.014780, -0.012075,  0.195824, -0.129997, -0.469019,  0.402057, -0.335660,  0.972280,  0.806792, -0.218705,  0.534567, -0.294166,  0.259667,  0.244765,  0.240046,  0.222903, -0.239952,  0.348768,  0.218804, -0.565818,  0.173224,  0.029593, -0.189122, -0.033969,  0.007119, -0.141353,  0.373599, -0.521192,  0.322605, -0.360308, -0.643301,  0.438955,
         0.354600, -0.085157,  0.238279, -0.285406, -0.161382, -0.314139, -0.127072,  0.763228,  0.830963, -0.655674, -0.222611, -0.058933,  0.170981,  0.343507,  0.274129,  0.463134, -0.093854,  0.026866, -0.381139,  0.265658,  0.323403, -0.138787,  0.652219, -0.328278, -0.067571, -0.076357,  0.579065, -0.031125, -0.131280,  0.334589,  0.039496, -0.408197,
        -0.276526, -0.061578, -0.123364,  0.281333, -0.193031,  0.178119,  0.261823, -0.199364,  0.558581, -0.888830,  0.435762, -0.820618,  0.110051,  0.424541,  0.041460, -0.073697,  0.314827,  0.504575, -0.536320, -0.111470,  0.122848, -0.598208,  0.154867, -0.349889,  0.043062, -0.217557, -0.070284,  0.162213,  0.076442,  0.123543,  0.377816, -0.341266,
         0.202541,  0.317156,  0.512852, -0.069483,  0.008507, -0.054005, -0.021168, -0.160193,  0.405630, -0.175782, -0.700185,  0.611228,  0.209547, -0.163224,  0.515828, -0.704615,  0.458031, -0.037555,  0.277020,  0.377220,  0.422146,  0.310666, -0.169179,  0.987322, -0.696594,  0.165315, -0.030940, -0.053221,  0.144678, -0.163945,  0.405382,  0.138254,
         0.411905, -0.013212,  0.605506,  0.521763,  0.046503,  0.454280,  0.411833,  0.405123, -0.434803,  0.845717,  0.251008, -0.102771, -0.390487,  0.585186,  0.109032,  0.816141,  0.264892,  0.273134, -0.095431, -0.024415,  0.248609,  0.174158,  0.337476, -0.146558,  0.327756, -0.217004,  0.129744,  0.451786,  0.232616,  0.842132,  0.510537, -0.071517,
        -0.269396,  0.302991,  0.258246, -0.462663,  0.673889, -0.916427,  0.469770,  0.080504,  0.686326, -0.293929,  0.543114, -0.614336, -0.252942, -0.410595,  0.216527, -0.324715,  0.754830, -0.112588,  0.194118, -0.621690, -0.384125, -0.175632, -0.630774,  0.694159, -0.114838,  0.258314,  0.223537, -0.047893,  0.372790,  0.329606,  0.326187,  0.429517,
         0.167269,  0.807485, -0.247119,  1.031462,  0.108504, -1.178936, -0.382201, -1.425988, -0.369635,  0.806217,  0.315089,  0.397657,  0.811679, -0.057147, -0.044721, -0.401449, -0.427217, -0.001273, -0.279408,  0.043513, -0.346808,  0.068086, -0.270296,  0.298675,  0.160344,  0.229837,  0.404063, -0.174667, -0.031636,  0.182655, -0.199939,  0.249940,
         0.095415,  0.204354,  0.037020, -0.046943,  0.009681, -0.123674,  0.345575, -0.263941, -0.446421,  0.966077, -0.215833,  0.466799,  0.081660, -0.283378, -0.273500, -0.032389, -0.214444,  0.611537,  0.236148,  0.280843,  0.013636, -0.147108, -0.386968,  0.374215,  0.011109,  0.896653,  0.019409, -0.169880,  0.528311, -0.625421, -0.110422,  0.692572
    };
    
    static float biases[16*1] = {
         0.006959,  0.228603, -0.022945, -0.022928, -0.824918, -0.449195,  0.245858,  0.005266,  0.706071, -0.080084,  0.102211,  0.241903, -0.790208,  1.267822,  0.185689,  0.650157
    };

    dense_layer_t layer= {
         32,     // number of input features 
         16,     // number of neurons/outputs
        weights, // weights of neurons
        biases   // biases of neurons
             
             
    };
    return layer;
}

        
dense_layer_t init_dense_3_data(void){
    //  16 inputs
    //  10 outputs/neurons
    static float weights[10*16] = {
         0.336547,  0.227917,  0.405010,  0.322759, -0.483733,  0.547342, -0.685188,  0.474442, -0.528600,  0.598299, -0.632052, -0.174394, -0.169361,  0.704292,  0.075596, -1.558168,
        -0.244065, -0.043270, -0.107111, -0.126929, -0.471371, -0.575394,  0.195327, -0.488635,  0.747653, -0.956755, -1.127493, -0.669933, -0.244967,  1.123069,  0.593783,  0.850609,
         0.198911, -0.607280,  0.227565, -0.230875, -0.344379,  0.610759, -0.058591,  0.589450, -0.655622, -1.127953, -0.443686,  0.500785,  0.249853, -0.076475,  0.386983,  0.649350,
        -0.403273, -0.092429, -0.216477,  0.137085,  0.564220, -0.041982, -0.234109, -0.256631, -0.771139, -0.263007,  0.537974, -0.313073,  0.774820, -0.690006,  0.565211,  0.145570,
        -0.283893, -1.063528, -0.288674,  0.427744,  0.214367, -0.865044, -0.061572, -0.656012,  0.156947,  0.471960,  0.018382,  0.587712, -0.298154,  0.447245, -0.446614,  0.612746,
        -0.013488,  0.705552, -0.329836,  0.272731, -0.338888,  0.171584,  0.712079, -0.570862,  0.022215,  0.412004, -0.282938, -0.442353,  0.451480, -0.659901, -0.792344, -0.087129,
        -0.053425, -0.800222,  0.033812, -0.457289, -0.894249, -0.683800,  0.458574,  0.821158,  0.274772,  0.354293, -0.601464,  0.117808,  0.521529,  0.028710, -0.973589, -0.921980,
         0.087661, -0.494076,  0.073251,  0.011587, -0.081039,  0.891187, -0.451060, -0.247359,  0.421868,  0.261437,  1.394829,  0.015254, -0.604805, -0.674443,  0.923016,  0.338086,
        -0.301207, -0.548422, -0.480057, -0.464022,  0.580327,  0.489453, -0.034784,  0.001628,  0.247316, -0.324038, -1.311562, -0.349379,  0.533020,  0.120431, -0.298243, -0.910491,
         0.414112,  0.060151,  0.220377,  0.167722,  0.583776, -0.258620, -0.159042,  0.602746,  0.635713,  0.234465, -0.371905,  0.275871, -0.669163, -0.500785, -0.258302, -0.228534
    };
    
    static float biases[10*1] = {
         0.120672,  0.980454,  0.015548, -0.498193,  0.415835, -0.218562,  0.370020, -0.217359, -0.727055,  0.198290
    };

    dense_layer_t layer= {
         16,     // number of input features 
         10,     // number of neurons/outputs
        weights, // weights of neurons
        biases   // biases of neurons
             
             
    };
    return layer;
}

